// StandardAccel = 10, maxSpeed = 22,5 m/s
var v1 = {"input_nodes":7,"hidden_nodes":8,"output_nodes":2,"weights_ho":{"rows":2,"cols":8,"data":[[-0.3653784101487917,1.8119396919065218,3.9117639477925463,0.7867076059459701,0.7108352917833254,2.0550713109185756,1.8279547978945434,-0.7479117868200533],[-0.6894163394217475,-2.8066977900010466,0.2450453571434408,2.995807343576925,-2.9909484147227454,2.8437644949386574,-3.424801020656278,-2.417598661253423]]},"weights_ih":{"rows":8,"cols":7,"data":[[-0.18640490579159436,0.46028764381583853,-1.792000829880699,0.5353802743516289,-0.7244009631481567,-1.1002922428590114,-1.8308770803294534],[0.07817977787684986,-0.20727523062830444,-0.8514739497716246,0.4542704891935067,1.0301542108232786,0.8395102473835823,-1.350062867010773],[0.609310925196242,0.15771290221825535,-0.1039405234634787,0.34902822590159555,0.4383762860894923,0.11653553767261221,-0.22388698558432157],[-0.7216151920329299,-1.125265776746904,1.0350650817522613,-0.4062691347995013,0.26567485498650867,0.8518434621558415,-0.04157418425414516],[-0.02561355412223431,-0.7405237471564331,-0.49991108122381867,-0.07817105279555842,-1.7186811167191083,-0.7756030408996095,-0.08587581953701542],[0.0675593768542767,-0.7047800432749898,1.3380043768407148,-0.2243170186801465,-0.6414385407894528,-0.05111717024086926,0.5744031730073964],[-0.14155486702780312,0.7265184371264555,-0.705608635212438,-0.6797191138034856,-0.15066172156260033,-0.8989946827399161,-0.13704772966457063],[0.11017712748951072,-1.1716544755358407,-0.4924516340717575,-0.08487450145921882,0.027730115866411442,1.1708459313360466,-0.38406116638946547]]},"bias_o":{"rows":2,"cols":1,"data":[[2.033012516455843],[0.33049452345123176]]},"bias_h":{"rows":8,"cols":1,"data":[[-0.1760874719839493],[0.0791991660671457],[-0.08429770061358022],[-1.547793460388299],[-0.3641147507200503],[-0.025393474159135856],[0.3469872283768506],[-0.8314469666133553]]}}

var v1_6 = {"input_nodes":7,"hidden_nodes":8,"output_nodes":2,"weights_ho":{"rows":2,"cols":8,"data":[[-1.6682256723158275,1.0212978422878725,4.224228544823821,0.7921765486911163,1.4911191755347029,2.187179292180008,1.056815993386638,-0.3236500917208065],[-0.8908933464061959,-4.316501643788981,2.1501365163264254,5.152136035154286,-2.9260348424435696,1.15028003040607,-4.493571208032432,-3.077611153643646]]},"weights_ih":{"rows":8,"cols":7,"data":[[0.1274636113369804,1.7433919089981742,-2.127566817050118,0.48969551850700566,-1.3312653970629225,-0.8365933700560931,-1.884544898218081],[0.30383716944255224,0.09751799928241522,-1.2912597598830593,0.23984067467422715,1.183924144967859,0.5718043749249087,-2.4201617497397723],[0.6010967251666126,1.189664827945448,0.7739847825880495,0.1683723050370452,0.9864059029186736,0.24544444497631238,0.34425947660857004],[-0.6942374549943695,-2.4125799842973916,1.9383876844597068,-0.8179120856625869,-0.4499687349965852,0.5619159182998029,0.00874478047305391],[0.006963735521868519,0.20071320982305835,0.00010596702955964488,-0.9132661672982239,-1.7192972082653362,-0.6289685980204086,-0.1685263255402218],[0.5231196616246241,-1.623519299409666,0.8069658300805983,0.0491353491856384,-1.1260963100424952,-0.8998007512176122,1.245694635950227],[-0.28643215624102464,0.4590300128804365,-0.2519170601811763,-1.406163357705985,0.670941390983286,-0.9177770162662947,-0.5135314498920474],[0.1697500140899696,-1.8698191196421938,-0.7740121097231125,-0.5948440608803401,1.069664164306923,1.7060815391188704,-0.7788722949773328]]},"bias_o":{"rows":2,"cols":1,"data":[[1.6819880018554616],[1.1877664684467713]]},"bias_h":{"rows":8,"cols":1,"data":[[0.10808056804191123],[-0.41655402501914185],[-0.4334865829028189],[-1.525196265990684],[-0.8810259542857498],[0.2171414170136493],[0.840996708486701],[-1.2152468451726472]]}}
